svm_type c_svc
kernel_type polynomial
degree 5
gamma 0.0078125
coef0 0
nr_class 2
total_sv 7
rho 1.37075
label 1 -1
nr_sv 1 6
SV
3.849031231106139e-17 0:35 1:65 2:35 3:67 4:35 5:66 6:35 7:65 8:35 9:68 10:35 11:68 12:35 13:80 14:35 15:84 16:32 17:72 18:32 19:72 20:34 21:73 22:34 23:73 24:35 25:76 26:35 27:75 28:35 29:78 30:35 31:83 32:32 33:72 34:32 35:72 36:34 37:77 38:34 39:77 40:35 41:78 42:35 43:77 44:35 45:84 46:35 47:87 48:32 49:72 50:32 51:72 52:34 53:73 54:34 55:72 56:34 57:72 58:34 59:71 60:34 61:73 62:34 63:73 64:34 65:77 66:34 67:76 68:35 69:67 70:35 71:67 72:33 73:67 74:33 75:68 76:32 77:71 78:32 79:70 80:35 81:77 82:35 83:76 84:34 85:69 86:34 87:69 88:32 89:69 90:32 91:70 92:32 93:71 94:32 95:71 96:35 97:75 98:35 99:74 100:35 101:71 102:35 103:71 104:34 105:61 106:34 107:60 108:34 109:60 110:34 111:62 112:35 113:71 114:35 115:71 116:33 117:67 118:33 119:68 120:34 121:63 122:34 123:63 124:34 125:63 126:34 127:62 128:-1 
-6.587811856337709e-18 0:42 1:27 2:42 3:26 4:47 5:27 6:47 7:27 8:51 9:16 10:51 11:15 12:63 13:12 14:63 15:12 16:45 17:26 18:45 19:26 20:51 21:16 22:51 23:16 24:53 25:9 26:53 27:9 28:53 29:9 30:53 31:9 32:42 33:26 34:42 35:26 36:49 37:20 38:49 39:19 40:55 41:13 42:55 43:13 44:45 45:15 46:45 47:15 48:47 49:23 50:47 51:23 52:49 53:25 54:49 55:24 56:51 57:20 58:51 59:21 60:42 61:26 62:42 63:26 64:51 65:17 66:51 67:17 68:45 69:26 70:45 71:26 72:40 73:32 74:40 75:32 76:35 77:38 78:35 79:39 80:45 81:26 82:45 83:27 84:43 85:34 86:43 87:33 88:39 89:40 90:39 91:42 92:35 93:53 94:35 95:55 96:42 97:40 98:42 99:42 100:37 101:50 102:37 103:52 104:37 105:58 106:37 107:58 108:37 109:68 110:37 111:67 112:40 113:64 114:40 115:64 116:37 117:79 118:37 119:90 120:35 121:86 122:35 123:80 124:35 125:75 126:35 127:74 128:-1 
-4.751089738778713e-19 0:13 1:163 2:13 3:162 4:13 5:161 6:13 7:162 8:14 9:154 10:14 11:153 12:13 13:145 14:13 15:144 16:14 17:166 18:14 19:165 20:14 21:163 22:14 23:163 24:13 25:157 26:13 27:157 28:13 29:151 30:13 31:152 32:14 33:166 34:14 35:166 36:14 37:166 38:14 39:164 40:13 41:158 42:13 43:158 44:13 45:151 46:13 47:152 48:14 49:171 50:14 51:170 52:14 53:169 54:14 55:168 56:13 57:162 58:13 59:162 60:14 61:154 62:14 63:155 64:13 65:166 66:13 67:166 68:13 69:167 70:13 71:166 72:13 73:162 74:13 75:162 76:13 77:157 78:13 79:157 80:13 81:170 82:13 83:168 84:14 85:169 86:14 87:168 88:14 89:167 90:14 91:168 92:14 93:164 94:14 95:164 96:13 97:167 98:13 99:166 100:13 101:164 102:13 103:164 104:13 105:164 106:13 107:164 108:13 109:160 110:13 111:160 112:14 113:171 114:14 115:169 116:13 117:168 118:13 119:167 120:13 121:166 122:13 123:166 124:13 125:162 126:13 127:161 128:-1 
-4.346152080049578e-21 0:5 1:41 2:5 3:40 4:0 5:42 6:0 7:41 8:175 9:35 10:175 11:33 12:175 13:35 14:175 15:47 16:4 17:39 18:4 19:38 20:0 21:36 22:0 23:36 24:170 25:32 26:170 27:30 28:175 29:33 30:175 31:47 32:177 33:34 34:177 35:33 36:177 37:32 38:177 39:34 40:170 41:32 42:170 43:30 44:170 45:35 46:170 47:50 48:170 49:34 50:170 51:33 52:170 53:37 54:170 55:39 56:170 57:35 58:170 59:34 60:175 61:33 62:175 63:45 64:168 65:38 66:168 67:37 68:170 69:34 70:170 71:35 72:175 73:34 74:175 75:34 76:179 77:38 78:179 79:48 80:174 81:39 82:174 83:39 84:176 85:40 86:176 87:40 88:179 89:39 90:179 91:39 92:3 93:45 94:3 95:48 96:178 97:40 98:178 99:41 100:178 101:42 102:178 103:41 104:0 105:42 106:0 107:42 108:3 109:48 110:3 111:47 112:3 113:43 114:3 115:44 116:4 117:46 118:4 119:46 120:2 121:45 122:2 123:45 124:2 125:46 126:2 127:45 128:-1 
-1.575667301167624e-19 0:170 1:10 2:170 3:10 4:171 5:11 6:171 7:11 8:5 9:19 10:5 11:21 12:5 13:83 14:5 15:120 16:166 17:18 18:166 19:17 20:170 21:20 22:170 23:20 24:3 25:50 26:3 27:79 28:1 29:200 30:1 31:204 32:170 33:17 34:170 35:17 36:1 37:44 38:1 39:56 40:1 41:154 42:1 43:187 44:2 45:228 46:2 47:213 48:0 49:27 50:0 51:30 52:2 53:114 54:2 55:173 56:1 57:210 58:1 59:199 60:3 61:190 62:3 63:151 64:0 65:108 66:0 67:160 68:1 69:220 70:1 71:184 72:5 73:143 74:5 75:126 76:9 77:93 78:9 79:92 80:4 81:101 82:4 83:107 84:4 85:121 86:4 87:108 88:6 89:87 90:6 91:82 92:7 93:69 94:7 95:71 96:4 97:70 98:4 99:68 100:5 101:63 102:5 103:62 104:5 105:61 106:5 107:60 108:6 109:60 110:6 111:62 112:5 113:60 114:5 115:60 116:4 117:58 118:4 119:58 120:5 121:58 122:5 123:56 124:7 125:57 126:7 127:58 128:-1 
-5.462258870748254e-18 0:36 1:76 2:36 3:87 4:36 5:86 6:35 7:86 8:35 9:88 10:36 11:83 12:36 13:87 14:37 15:89 16:37 17:75 18:38 19:80 20:38 21:82 22:37 23:86 24:37 25:88 26:37 27:93 28:37 29:96 30:37 31:91 32:36 33:62 34:36 35:62 36:36 37:64 38:36 39:72 40:36 41:73 42:35 43:78 44:35 45:78 46:36 47:66 48:37 49:48 50:37 51:44 52:37 53:44 54:37 55:45 56:37 57:44 58:35 59:41 60:35 61:41 62:38 63:34 64:37 65:42 66:44 67:38 68:44 69:37 70:43 71:30 72:43 73:29 74:45 75:24 76:45 77:24 78:45 79:24 80:40 81:35 82:45 83:31 84:45 85:31 86:45 87:24 88:45 89:24 90:49 91:23 92:49 93:23 94:45 95:33 96:46 97:28 98:46 99:27 100:46 101:27 102:49 103:29 104:49 105:30 106:48 107:45 108:48 109:48 110:44 111:65 112:46 113:28 114:44 115:28 116:44 117:29 118:43 119:42 120:43 121:43 122:45 123:60 124:45 125:63 126:42 127:76 128:-1 
-2.580321972790074e-17 0:35 1:74 2:35 3:75 4:35 5:79 6:35 7:81 8:35 9:91 10:35 11:89 12:35 13:80 14:35 15:79 16:34 17:74 18:34 19:75 20:34 21:72 22:34 23:74 24:35 25:76 26:35 27:77 28:35 29:74 30:35 31:74 32:34 33:72 34:34 35:72 36:34 37:73 38:34 39:73 40:35 41:78 42:35 43:80 44:36 45:93 46:36 47:93 48:35 49:70 50:35 51:71 52:35 53:68 54:35 55:67 56:36 57:68 58:36 59:71 60:37 61:81 62:37 63:89 64:37 65:73 66:37 67:73 68:36 69:68 70:36 71:67 72:38 73:61 74:38 75:59 76:41 77:51 78:41 79:56 80:38 81:71 82:38 83:68 84:40 85:53 86:40 87:51 88:42 89:33 90:42 91:32 92:42 93:24 94:42 95:25 96:41 97:48 98:41 99:47 100:42 101:39 102:42 103:39 104:47 105:27 106:47 107:26 108:51 109:19 110:51 111:19 112:40 113:28 114:40 115:29 116:40 117:34 118:40 119:35 120:45 121:34 122:45 123:33 124:47 125:25 126:47 127:24 128:-1 
