svm_type c_svc
kernel_type polynomial
degree 5
gamma 0.0078125
coef0 0
nr_class 2
total_sv 12
rho -1.60888
label 1 -1
nr_sv 9 3
SV
4.394384470825546e-19 0:13 1:15 2:13 3:13 4:6 5:9 6:6 7:9 8:170 9:11 10:170 11:11 12:170 13:11 14:170 15:12 16:13 17:14 18:6 19:10 20:6 21:10 22:6 23:10 24:170 25:12 26:160 27:12 28:160 29:12 30:170 31:11 32:6 33:10 34:6 35:10 36:6 37:11 38:6 39:11 40:160 41:11 42:160 43:12 44:160 45:12 46:160 47:11 48:6 49:10 50:6 51:10 52:6 53:11 54:6 55:11 56:160 57:12 58:160 59:12 60:160 61:12 62:160 63:12 64:6 65:11 66:6 67:11 68:6 69:10 70:6 71:11 72:170 73:14 74:160 75:14 76:160 77:14 78:160 79:14 80:0 81:13 82:11 83:17 84:0 85:12 86:0 87:13 88:170 89:13 90:170 91:13 92:170 93:12 94:170 95:11 96:11 97:17 98:11 99:17 100:0 101:12 102:0 103:13 104:0 105:13 106:170 107:12 108:170 109:11 110:170 111:10 112:11 113:17 114:11 115:15 116:11 117:16 118:11 119:16 120:11 121:16 122:0 123:12 124:0 125:11 126:0 127:11 128:-1 
8.82600526595215e-20 0:170 1:12 2:170 3:12 4:170 5:12 6:170 7:13 8:160 9:13 10:160 11:11 12:170 13:12 14:170 15:12 16:156 17:11 18:156 19:11 20:160 21:12 22:160 23:12 24:170 25:17 26:170 27:17 28:170 29:18 30:170 31:20 32:141 33:15 34:145 35:14 36:150 37:15 38:160 39:12 40:170 41:16 42:170 43:17 44:169 45:24 46:169 47:26 48:135 49:24 50:138 51:24 52:150 53:17 54:160 55:12 56:170 57:15 58:169 59:19 60:170 61:24 62:170 63:26 64:138 65:24 66:146 67:18 68:156 69:23 70:163 71:17 72:169 73:18 74:170 75:20 76:175 77:23 78:175 79:24 80:170 81:22 82:169 83:23 84:170 85:24 86:170 87:22 88:170 89:20 90:175 91:22 92:0 93:25 94:5 95:24 96:3 97:22 98:175 99:30 100:170 101:27 102:170 103:25 104:170 105:26 106:175 107:24 108:3 109:23 110:8 111:22 112:177 113:20 114:175 115:25 116:170 117:25 118:170 119:25 120:170 121:24 122:175 123:25 124:3 125:22 126:8 127:22 128:-1 
2.010343438578087e-19 0:145 1:13 2:156 3:11 4:156 5:11 6:160 7:12 8:160 9:12 10:170 11:17 12:170 13:17 14:170 15:18 16:138 17:17 18:141 19:15 20:145 21:14 22:150 23:15 24:160 25:12 26:170 27:16 28:170 29:17 30:169 31:24 32:129 33:20 34:135 35:24 36:138 37:24 38:150 39:17 40:160 41:12 42:170 43:15 44:169 45:19 46:170 47:24 48:130 49:22 50:138 51:24 52:146 53:18 54:156 55:23 56:163 57:17 58:169 59:18 60:170 61:20 62:175 63:23 64:170 65:26 66:170 67:22 68:169 69:23 70:170 71:24 72:170 73:22 74:170 75:20 76:175 77:22 78:0 79:25 80:8 81:23 82:3 83:22 84:175 85:30 86:170 87:27 88:170 89:25 90:170 91:26 92:175 93:24 94:3 95:23 96:6 97:21 98:177 99:20 100:175 101:25 102:170 103:25 104:170 105:25 106:170 107:24 108:175 109:25 110:3 111:22 112:3 113:25 114:177 115:22 116:175 117:21 118:170 119:20 120:170 121:23 122:170 123:24 124:177 125:19 126:177 127:17 128:-1 
2.509478113357022e-19 0:8 1:20 2:8 3:20 4:8 5:20 6:8 7:20 8:6 9:19 10:177 11:16 12:177 13:15 14:177 15:15 16:8 17:21 18:8 19:21 20:8 21:22 22:6 23:19 24:177 25:16 26:170 27:16 28:170 29:16 30:170 31:17 32:8 33:20 34:8 35:21 36:6 37:20 38:6 39:18 40:0 41:10 42:170 43:11 44:160 45:12 46:160 47:12 48:3 49:20 50:6 51:19 52:177 53:18 54:177 55:16 56:177 57:16 58:170 59:19 60:170 61:19 62:170 63:18 64:169 65:20 66:169 67:22 68:169 69:21 70:169 71:21 72:177 73:20 74:3 75:25 76:0 77:27 78:5 79:24 80:164 81:21 82:164 83:22 84:164 85:22 86:169 87:22 88:0 89:26 90:5 91:30 92:5 93:39 94:8 95:34 96:169 97:22 98:170 99:18 100:170 101:19 102:177 103:19 104:3 105:24 106:5 107:26 108:8 109:34 110:8 111:36 112:170 113:19 114:170 115:19 116:177 117:20 118:6 119:21 120:3 121:23 122:11 123:29 124:8 125:31 126:13 127:33 128:-1 
5.382539823530266e-20 0:5 1:27 2:0 3:24 4:0 5:28 6:0 7:28 8:0 9:31 10:2 11:33 12:8 13:27 14:14 15:39 16:5 17:34 18:2 19:29 20:2 21:29 22:2 23:31 24:5 25:29 26:5 27:30 28:11 29:25 30:15 31:32 32:5 33:35 34:2 35:30 36:2 37:29 38:0 39:24 40:0 41:25 42:5 43:27 44:14 45:26 46:16 47:20 48:2 49:32 50:0 51:28 52:175 53:26 54:175 55:25 56:177 57:21 58:177 59:19 60:13 61:13 62:24 63:9 64:2 65:31 66:0 67:29 68:170 69:27 70:169 71:24 72:169 73:23 74:170 75:12 76:6 77:9 78:20 79:6 80:2 81:29 82:0 83:29 84:170 85:26 86:169 87:22 88:169 89:21 90:170 91:12 92:6 93:13 94:20 95:8 96:2 97:30 98:2 99:30 100:0 101:26 102:177 103:19 104:177 105:18 106:11 107:15 108:13 109:19 110:25 111:17 112:11 113:33 114:11 115:33 116:8 117:29 118:11 119:28 120:11 121:26 122:16 123:21 124:21 125:25 126:30 127:26 128:-1 
4.483536141577229e-17 0:57 1:57 2:57 3:56 4:57 5:56 6:60 7:51 8:60 9:51 10:60 11:51 12:60 13:51 14:60 15:51 16:57 17:57 18:57 19:55 20:57 21:55 22:59 23:49 24:60 25:50 26:59 27:49 28:60 29:51 30:59 31:49 32:59 33:49 34:56 35:46 36:56 37:46 38:56 39:46 40:59 41:48 42:59 43:42 44:61 45:45 46:59 47:41 48:59 49:48 50:56 51:46 52:56 53:45 54:56 55:45 56:56 57:46 58:59 59:42 60:59 61:41 62:59 63:41 64:54 65:53 66:56 67:46 68:56 69:45 70:59 71:47 72:59 73:47 74:59 75:48 76:59 77:47 78:59 79:47 80:54 81:52 82:56 83:46 84:56 85:46 86:59 87:48 88:59 89:48 90:59 91:47 92:59 93:47 94:59 95:47 96:54 97:52 98:54 99:52 100:54 101:52 102:57 103:54 104:57 105:53 106:60 107:49 108:60 109:48 110:60 111:49 112:54 113:51 114:54 115:51 116:54 117:52 118:54 119:52 120:57 121:53 122:59 123:47 124:60 125:49 126:60 127:49 128:-1 
6.001907523313808e-17 0:56 1:25 2:60 3:21 4:65 5:21 6:65 7:20 8:65 9:20 10:63 11:17 12:52 13:19 14:52 15:19 16:62 17:24 18:62 19:23 20:67 21:22 22:67 23:22 24:67 25:22 26:65 27:21 28:63 29:17 30:57 31:19 32:62 33:24 34:66 35:29 36:66 37:29 38:66 39:29 40:62 41:25 42:67 43:23 44:65 45:21 46:65 47:20 48:62 49:27 50:66 51:31 52:66 53:31 54:66 55:31 56:66 57:30 58:67 59:24 60:67 61:23 62:65 63:20 64:57 65:23 66:58 67:33 68:58 69:31 70:58 71:29 72:58 73:28 74:62 75:25 76:62 77:24 78:67 79:21 80:57 81:21 82:56 83:26 84:58 85:26 86:58 87:25 88:58 89:25 90:58 91:25 92:60 93:21 94:60 95:21 96:68 97:20 98:58 99:26 100:55 101:28 102:53 103:27 104:53 105:28 106:53 107:29 108:54 109:25 110:54 111:26 112:65 113:23 114:58 115:28 116:55 117:31 118:53 119:31 120:53 121:31 122:51 123:31 124:51 125:32 126:46 127:29 128:-1 
3.139224575799051e-17 0:85 1:23 2:80 3:23 4:74 5:21 6:68 7:21 8:63 9:19 10:57 11:20 12:57 13:21 14:56 15:26 16:84 17:26 18:80 19:27 20:74 21:22 22:69 23:22 24:65 25:21 26:60 27:21 28:57 29:20 30:56 31:25 32:92 33:23 34:90 35:22 36:80 37:18 38:74 39:20 40:68 41:17 42:65 43:19 44:63 45:17 46:65 47:21 48:98 49:27 50:95 51:25 52:92 53:21 54:90 55:16 56:87 57:14 58:79 59:16 60:79 61:18 62:74 63:19 64:100 65:30 66:98 67:27 68:95 69:23 70:92 71:21 72:90 73:18 74:93 75:17 76:93 77:18 78:87 79:17 80:98 81:28 82:95 83:25 84:92 85:21 86:90 87:21 88:90 89:19 90:90 91:19 92:93 93:17 94:93 95:17 96:98 97:27 98:95 99:24 100:92 101:22 102:90 103:18 104:90 105:19 106:93 107:17 108:93 109:17 110:87 111:16 112:101 113:27 114:99 115:26 116:98 117:22 118:95 119:19 120:93 121:17 122:87 123:14 124:80 125:14 126:80 127:14 128:-1 
2.737012535466924e-18 0:60 1:51 2:58 3:56 4:58 5:55 6:58 7:54 8:60 9:51 10:60 11:51 12:63 13:49 14:65 15:50 16:63 17:50 18:61 19:47 20:61 21:48 22:61 23:49 24:59 25:51 26:60 27:50 28:60 29:49 30:63 31:49 32:64 33:46 34:63 35:45 36:63 37:47 38:61 39:52 40:59 41:53 42:59 43:51 44:60 45:51 46:60 47:51 48:67 49:47 50:63 51:43 52:63 53:47 54:59 55:47 56:59 57:53 58:59 59:56 60:57 61:59 62:58 63:59 64:64 65:51 66:63 67:48 68:61 69:49 70:56 71:51 72:56 73:50 74:57 75:60 76:57 77:62 78:56 79:73 80:63 81:57 82:61 83:52 84:59 85:53 86:56 87:53 88:54 89:60 90:57 91:59 92:57 93:59 94:57 95:63 96:60 97:53 98:59 99:52 100:57 101:57 102:54 103:58 104:54 105:59 106:57 107:57 108:57 109:55 110:57 111:56 112:58 113:53 114:57 115:54 116:55 117:59 118:52 119:57 120:52 121:59 122:54 123:54 124:54 125:51 126:56 127:43 128:-1 
-1.221490305269031e-16 0:56 1:27 2:53 3:34 4:56 5:28 6:55 7:33 8:55 9:33 10:54 11:37 12:57 13:37 14:57 15:37 16:62 17:26 18:58 19:29 20:62 21:28 22:62 23:36 24:62 25:36 26:58 27:37 28:55 29:38 30:62 31:39 32:69 33:27 34:69 35:27 36:69 37:28 38:69 39:30 40:66 41:31 42:66 43:30 44:62 45:25 46:69 47:28 48:74 49:20 50:74 51:20 52:76 53:24 54:76 55:24 56:74 57:21 58:74 59:20 60:74 61:20 62:76 63:24 64:76 65:23 66:76 67:26 68:76 69:27 70:76 71:23 72:76 73:22 74:74 75:20 76:74 77:20 78:76 79:24 80:73 81:58 82:69 83:50 84:72 85:44 86:72 87:37 88:70 89:34 90:69 91:32 92:71 93:30 94:69 95:29 96:67 97:56 98:67 99:48 100:66 101:41 102:69 103:37 104:67 105:33 106:66 107:33 108:69 109:31 110:66 111:29 112:58 113:35 114:58 115:35 116:58 117:35 118:62 119:32 120:62 121:26 122:62 123:27 124:67 125:25 126:62 127:26 128:-1 
-7.213642142616903e-19 0:74 1:44 2:69 3:41 4:60 5:35 6:59 7:37 8:55 9:43 10:55 11:45 12:53 13:53 14:48 15:52 16:77 17:41 18:74 19:47 20:69 21:52 22:67 23:54 24:63 25:51 26:61 27:53 28:59 29:60 30:55 31:57 32:94 33:47 34:90 35:66 36:85 37:114 38:82 39:80 40:77 41:58 42:74 43:44 44:72 45:35 46:67 47:29 48:100 49:49 50:98 51:55 52:94 53:47 54:91 55:31 56:89 57:27 58:84 59:21 60:85 61:16 62:73 63:12 64:101 65:41 66:101 67:40 68:99 69:36 70:98 71:30 72:99 73:21 74:95 75:15 76:90 77:8 78:66 79:7 80:100 81:26 82:101 83:28 84:101 85:29 86:100 87:28 88:99 89:23 90:95 91:16 92:80 93:9 94:60 95:12 96:101 97:18 98:101 99:19 100:100 101:26 102:99 103:35 104:93 105:36 106:84 107:43 108:69 109:52 110:62 111:54 112:103 113:17 114:101 115:19 116:100 117:27 118:99 119:35 120:91 121:36 122:87 123:36 124:72 125:39 126:66 127:42 128:-1 
-1.714680625437393e-17 0:88 1:26 2:84 3:29 4:84 5:29 6:84 7:27 8:84 9:24 10:84 11:25 12:88 13:26 14:84 15:27 16:87 17:30 18:87 19:33 20:87 21:33 22:87 23:32 24:90 25:24 26:90 27:26 28:90 29:27 30:90 31:29 32:84 33:29 34:84 35:29 36:84 37:30 38:83 39:33 40:87 41:28 42:87 43:29 44:87 45:30 46:89 47:31 48:81 49:31 50:81 51:31 52:81 53:31 54:83 55:34 56:83 57:33 58:83 59:34 60:83 61:33 62:87 63:32 64:76 65:31 66:77 67:38 68:77 69:35 70:81 71:29 72:81 73:29 74:81 75:30 76:81 77:31 78:81 79:31 80:76 81:30 82:76 83:30 84:76 85:28 86:77 87:30 88:76 89:26 90:77 91:33 92:76 93:29 94:77 95:33 96:76 97:25 98:76 99:26 100:71 101:27 102:72 103:28 104:71 105:27 106:72 107:31 108:71 109:29 110:72 111:30 112:76 113:24 114:71 115:27 116:71 117:29 118:71 119:31 120:69 121:27 122:69 123:33 124:69 125:25 126:71 127:30 128:-1 
