svm_type c_svc
kernel_type polynomial
degree 5
gamma 0.00520833
coef0 0
nr_class 2
total_sv 23
rho -3.2468
label 1 -1
nr_sv 12 11
SV
5.150581540793072e-20 0:96 1:178 2:166 3:97 4:176 5:165 6:96 7:175 8:164 9:100 10:179 11:168 12:101 13:180 14:169 15:106 16:185 17:174 18:103 19:184 20:175 21:99 22:180 23:171 24:85 25:169 26:157 27:88 28:170 29:158 30:92 31:174 32:162 33:100 34:182 35:170 36:102 37:184 38:172 39:103 40:185 41:173 42:104 43:183 44:174 45:102 46:181 47:172 48:95 49:177 50:165 51:94 52:176 53:164 54:96 55:175 56:164 57:103 58:182 59:171 60:105 61:184 62:173 63:106 64:185 65:174 66:102 67:181 68:172 69:103 70:182 71:173 72:103 73:182 74:171 75:102 76:181 77:170 78:99 79:177 80:166 81:104 82:182 83:171 84:104 85:182 86:171 87:104 88:182 89:171 90:105 91:182 92:174 93:106 94:183 95:175 96:102 97:180 98:169 99:104 100:183 101:170 102:108 103:184 104:172 105:115 106:191 107:179 108:110 109:186 110:174 111:103 112:179 113:167 114:110 115:188 116:177 117:108 118:186 119:175 120:94 121:173 122:160 123:94 124:173 125:159 126:101 127:180 128:166 129:104 130:183 131:169 132:99 133:178 134:164 135:93 136:172 137:158 138:100 139:182 140:164 141:98 142:180 143:162 144:79 145:156 146:142 147:80 148:158 149:141 150:85 151:163 152:146 153:88 154:166 155:149 156:85 157:163 158:146 159:79 160:160 161:141 162:76 163:158 164:139 165:73 166:155 167:136 168:81 169:156 170:140 171:80 172:156 173:138 174:77 175:153 176:135 177:73 178:149 179:131 180:66 181:142 182:124 183:62 184:138 185:120 186:68 187:147 188:128 189:64 190:145 191:126 192:-1 
2.925692246878411e-20 0:88 1:143 2:140 3:107 4:162 5:159 6:119 7:173 8:168 9:91 10:142 11:138 12:100 13:149 14:141 15:126 16:175 17:167 18:121 19:170 20:162 21:105 22:156 23:148 24:101 25:148 26:146 27:115 28:162 29:160 30:127 31:171 32:170 33:96 34:141 35:138 36:105 37:152 38:144 39:132 40:179 41:170 42:116 43:166 44:156 45:96 46:148 47:138 48:100 49:142 50:141 51:108 52:150 53:149 54:124 55:166 56:165 57:116 58:161 59:158 60:119 61:166 62:158 63:119 64:169 65:159 66:96 67:147 68:139 69:89 70:141 71:131 72:104 73:146 74:145 75:104 76:148 77:147 78:114 79:162 80:163 81:115 82:165 83:163 84:108 85:160 86:153 87:96 88:149 89:140 90:85 91:139 92:132 93:94 94:149 95:140 96:97 97:142 98:139 99:97 100:144 101:141 102:105 103:155 104:153 105:96 106:150 107:145 108:92 109:146 110:139 111:95 112:150 113:141 114:98 115:155 116:146 117:106 118:163 119:155 120:98 121:146 122:140 123:101 124:152 125:145 126:97 127:149 128:142 129:101 130:154 131:145 132:95 133:151 134:140 135:104 136:160 137:149 138:111 139:167 140:156 141:106 142:161 143:152 144:88 145:139 146:131 147:97 148:148 149:140 150:99 151:152 152:143 153:96 154:149 155:140 156:98 157:151 158:141 159:101 160:155 161:142 162:104 163:160 164:149 165:95 166:151 167:140 168:90 169:143 170:134 171:94 172:147 173:138 174:94 175:147 176:138 177:95 178:148 179:139 180:96 181:148 182:138 183:96 184:148 185:138 186:89 187:142 188:133 189:80 190:137 191:128 192:-1 
5.839349156203705e-21 0:85 1:135 2:131 3:95 4:144 5:142 6:84 7:132 8:134 9:67 10:113 11:120 12:56 13:102 14:110 15:88 16:131 17:140 18:102 19:145 20:148 21:107 22:153 23:154 24:74 25:123 26:121 27:92 28:139 29:137 30:75 31:116 32:119 33:53 34:92 35:100 36:80 37:116 38:126 39:134 40:170 41:180 42:131 43:168 44:172 45:122 46:161 47:163 48:86 49:130 50:131 51:82 52:121 53:123 54:75 55:110 56:114 57:68 58:97 59:104 60:94 61:121 62:131 63:129 64:156 65:166 66:131 67:166 68:169 69:109 70:149 71:148 72:83 73:124 74:126 75:55 76:92 77:96 78:69 79:101 80:107 81:82 82:110 83:117 84:103 85:124 86:132 87:115 88:141 89:148 90:123 91:156 92:159 93:122 94:162 95:161 96:85 97:126 98:129 99:73 100:111 101:116 102:83 103:117 104:123 105:88 106:117 107:124 108:88 109:111 110:119 111:80 112:106 113:112 114:122 115:156 116:156 117:139 118:178 119:176 120:88 121:124 122:130 123:84 124:120 125:126 126:94 127:128 128:134 129:100 130:132 131:138 132:89 133:119 134:124 135:75 136:108 137:111 138:120 139:154 140:154 141:151 142:188 143:186 144:125 145:155 146:160 147:116 148:146 149:151 150:62 151:97 152:101 153:70 154:107 155:111 156:87 157:128 158:131 159:65 160:106 161:108 162:103 163:141 164:141 165:148 166:185 167:183 168:122 169:151 170:156 171:100 172:129 173:134 174:28 175:60 176:65 177:22 178:59 179:63 180:63 181:104 182:107 183:84 184:125 185:128 186:100 187:138 188:138 189:119 190:156 191:154 192:-1 
8.183041998471878e-20 0:106 1:157 2:143 3:108 4:156 5:144 6:114 7:158 8:152 9:121 10:164 11:161 12:114 13:159 14:156 15:99 16:144 17:141 18:87 19:134 20:131 21:92 22:140 23:134 24:104 25:153 26:137 27:109 28:158 29:144 30:117 31:161 32:154 33:115 34:159 35:153 36:115 37:161 38:155 39:113 40:159 41:153 42:104 43:152 44:146 45:102 46:150 47:144 48:104 49:151 50:135 51:108 52:154 53:141 54:106 55:151 56:142 57:113 58:157 59:150 60:109 61:156 62:148 63:107 64:154 65:146 66:118 67:167 68:159 69:117 70:166 71:158 72:105 73:151 74:138 75:103 76:149 77:136 78:104 79:150 80:137 81:113 82:159 83:146 84:110 85:158 86:146 87:107 88:155 89:143 90:116 91:166 92:156 93:113 94:163 95:153 96:122 97:168 98:155 99:118 100:164 101:151 102:108 103:155 104:139 105:94 106:141 107:125 108:108 109:154 110:141 111:117 112:166 113:152 114:102 115:152 116:140 117:93 118:146 119:133 120:120 121:169 122:155 123:125 124:171 125:158 126:116 127:163 128:147 129:99 130:146 131:130 132:109 133:156 134:140 135:116 136:165 137:149 138:92 139:143 140:129 141:88 142:141 143:127 144:108 145:159 146:145 147:109 148:160 149:146 150:110 151:156 152:143 153:103 154:149 155:136 156:108 157:154 158:141 159:104 160:153 161:139 162:90 163:140 164:128 165:96 166:149 167:136 168:102 169:156 170:143 171:103 172:157 173:144 174:98 175:148 176:138 177:91 178:138 179:129 180:94 181:141 182:132 183:94 184:144 185:134 186:96 187:146 188:136 189:97 190:147 191:137 192:-1 
5.136387969578225e-21 0:68 1:129 2:115 3:60 4:119 5:105 6:65 7:124 8:110 9:81 10:140 11:126 12:95 13:151 14:140 15:97 16:155 17:144 18:92 19:148 20:137 21:96 22:152 23:141 24:51 25:111 26:100 27:62 28:120 29:109 30:84 31:140 32:129 33:96 34:152 35:141 36:103 37:156 38:146 39:97 40:153 41:142 42:101 43:154 44:144 45:108 46:161 47:151 48:72 49:130 50:119 51:82 52:138 53:127 54:95 55:148 56:138 57:102 58:155 59:145 60:111 61:164 62:154 63:108 64:161 65:151 66:102 67:154 68:144 69:102 70:155 71:145 72:90 73:148 74:137 75:97 76:153 77:142 78:105 79:158 80:148 81:112 82:164 83:154 84:115 85:167 86:157 87:108 88:160 89:150 90:102 91:152 92:142 93:91 94:143 95:133 96:90 97:150 98:140 99:102 100:158 101:147 102:106 103:159 104:149 105:103 106:155 107:145 108:100 109:150 110:140 111:101 112:151 113:141 114:99 115:149 116:139 117:103 118:153 119:143 120:87 121:150 122:141 123:94 124:154 125:144 126:94 127:149 128:140 129:95 130:148 131:139 132:87 133:139 134:129 135:90 136:140 137:130 138:104 139:154 140:142 141:104 142:154 143:142 144:94 145:154 146:146 147:93 148:152 149:144 150:85 151:142 152:133 153:96 154:149 155:140 156:108 157:160 158:150 159:120 160:172 161:162 162:110 163:162 164:152 165:103 166:155 167:145 168:112 169:165 170:156 171:100 172:155 173:146 174:83 175:138 176:129 177:99 178:154 179:145 180:117 181:170 182:161 183:119 184:172 185:163 186:114 187:167 188:158 189:102 190:153 191:145 192:-1 
6.352997061049326e-21 0:87 1:134 2:131 3:84 4:132 5:126 6:86 7:132 8:126 9:60 10:106 11:100 12:8 13:52 14:46 15:49 16:93 17:87 18:87 19:132 20:129 21:110 22:155 23:152 24:82 25:132 26:128 27:78 28:128 29:124 30:93 31:140 32:137 33:77 34:123 35:117 36:43 37:87 38:81 39:78 40:122 41:116 42:114 43:154 44:152 45:116 46:159 47:156 48:76 49:131 50:128 51:83 52:136 53:133 54:84 55:137 56:134 57:91 58:142 59:138 60:83 61:133 62:129 63:89 64:139 65:135 66:96 67:143 68:140 69:102 70:152 71:148 72:61 73:120 74:116 75:47 76:104 77:101 78:70 79:127 80:124 81:74 82:129 83:126 84:76 85:130 86:125 87:80 88:131 89:127 90:71 91:122 92:118 93:97 94:148 95:144 96:56 97:116 98:115 99:32 100:92 101:91 102:33 103:92 104:88 105:56 106:113 107:110 108:92 109:147 110:144 111:79 112:132 113:129 114:51 115:101 116:99 117:69 118:119 119:117 120:84 121:142 122:141 123:59 124:118 125:114 126:25 127:80 128:77 129:44 130:99 131:96 132:105 133:158 134:155 135:85 136:135 137:133 138:23 139:72 140:70 141:25 142:74 143:72 144:102 145:155 146:152 147:99 148:149 149:147 150:77 151:124 152:122 153:69 154:116 155:113 156:105 157:150 158:147 159:95 160:140 161:137 162:55 163:99 164:98 165:29 166:76 167:74 168:96 169:152 170:147 171:99 172:153 173:148 174:97 175:148 176:144 177:92 178:143 179:136 180:99 181:147 182:141 183:104 184:151 185:148 186:94 187:141 188:138 189:54 190:101 191:99 192:-1 
4.404269440335094e-20 0:90 1:143 2:133 3:102 4:151 5:143 6:108 7:153 8:150 9:112 10:155 11:152 12:114 13:152 14:152 15:122 16:160 17:160 18:128 19:164 20:164 21:118 22:157 23:155 24:90 25:143 26:133 27:106 28:157 29:149 30:104 31:151 32:143 33:103 34:147 35:141 36:117 37:156 38:154 39:117 40:155 41:155 42:123 43:159 44:159 45:120 46:158 47:160 48:104 49:156 50:146 51:106 52:156 53:146 54:77 55:124 56:116 57:70 58:114 59:108 60:96 61:136 62:134 63:114 64:154 65:152 66:123 67:161 68:161 69:139 70:178 71:180 72:104 73:151 74:142 75:102 76:149 77:140 78:83 79:127 80:120 81:73 82:117 83:111 84:82 85:125 86:122 87:97 88:140 89:137 90:109 91:154 92:151 93:114 94:158 95:157 96:97 97:144 98:135 99:93 100:140 101:132 102:91 103:137 104:131 105:83 106:128 107:125 108:72 109:117 110:114 111:85 112:130 113:127 114:94 115:140 116:134 117:82 118:130 119:124 120:87 121:137 122:125 123:78 124:127 125:119 126:78 127:125 128:122 129:79 130:124 131:121 132:69 133:114 134:111 135:84 136:130 137:124 138:97 139:144 140:136 141:98 142:142 143:135 144:82 145:135 146:122 147:75 148:127 149:117 150:74 151:122 152:116 153:84 154:129 155:126 156:88 157:134 158:128 159:98 160:142 161:136 162:112 163:156 164:149 165:103 166:146 167:137 168:88 169:142 170:129 171:87 172:140 173:127 174:83 175:133 176:123 177:95 178:142 179:133 180:109 181:153 182:146 183:120 184:162 185:155 186:120 187:163 188:154 189:98 190:141 191:132 192:-1 
1.612367643526537e-19 0:103 1:148 2:121 3:104 4:146 5:121 6:104 7:146 8:121 9:102 10:144 11:121 12:97 13:139 14:116 15:93 16:134 17:113 18:94 19:137 20:116 21:95 22:136 23:115 24:100 25:145 26:118 27:102 28:144 29:119 30:103 31:145 32:120 33:102 34:144 35:119 36:95 37:140 38:114 39:92 40:136 41:113 42:95 43:141 44:118 45:101 46:145 47:122 48:93 49:141 50:113 51:98 52:143 53:117 54:102 55:147 56:121 57:103 58:148 59:122 60:98 61:145 62:119 63:97 64:143 65:120 66:100 67:148 68:124 69:104 70:152 71:128 72:89 73:137 74:109 75:94 76:142 77:114 78:97 79:145 80:117 81:98 82:145 83:119 84:97 85:145 86:119 87:98 88:149 89:122 90:102 91:153 92:126 93:102 94:152 95:128 96:89 97:138 98:110 99:93 100:142 101:114 102:97 103:146 104:118 105:98 106:146 107:120 108:96 109:147 110:120 111:98 112:151 113:124 114:100 115:153 116:126 117:100 118:152 119:128 120:88 121:139 122:112 123:91 124:142 125:115 126:96 127:147 128:120 129:97 130:148 131:121 132:94 133:147 134:120 135:94 136:149 137:122 138:96 139:151 140:124 141:96 142:151 143:126 144:87 145:138 146:111 147:93 148:143 149:119 150:94 151:147 152:120 153:92 154:145 155:118 156:90 157:145 158:118 159:93 160:151 161:123 162:95 163:153 164:125 165:94 166:149 167:124 168:87 169:137 170:113 171:92 172:144 173:121 174:93 175:145 176:121 177:97 178:149 179:125 180:94 181:149 182:124 183:92 184:149 185:124 186:96 187:153 188:128 189:94 190:150 191:127 192:-1 
1.583569512056624e-20 0:147 1:177 2:164 3:142 4:172 5:159 6:144 7:174 8:163 9:144 10:173 11:164 12:113 13:142 14:133 15:96 16:124 17:118 18:141 19:172 20:165 21:151 22:181 23:176 24:139 25:169 26:156 27:122 28:152 29:139 30:126 31:156 32:143 33:139 34:169 35:158 36:109 37:140 38:131 39:94 40:125 41:116 42:105 43:138 44:131 45:122 46:155 47:148 48:106 49:142 50:128 51:87 52:124 53:108 54:105 55:141 56:127 57:111 58:147 59:133 60:100 61:138 62:126 63:95 64:133 65:121 66:79 67:119 68:107 69:87 70:130 71:117 72:93 73:132 74:117 75:88 76:127 77:112 78:101 79:140 80:124 81:104 82:145 83:130 84:96 85:137 86:122 87:94 88:137 89:122 90:101 91:144 92:129 93:102 94:147 95:131 96:101 97:142 98:127 99:98 100:139 101:124 102:98 103:139 104:124 105:103 106:145 107:128 108:99 109:141 110:124 111:100 112:142 113:125 114:116 115:158 116:140 117:111 118:156 119:137 120:105 121:145 122:133 123:97 124:137 125:125 126:90 127:131 128:116 129:94 130:138 131:121 132:95 133:139 134:122 135:96 136:141 137:122 138:112 139:158 140:136 141:116 142:162 143:140 144:99 145:139 146:128 147:99 148:139 149:128 150:92 151:135 152:122 153:91 154:136 155:120 156:91 157:137 158:118 159:80 160:129 161:107 162:77 163:127 164:103 165:84 166:136 167:112 168:99 169:139 170:128 171:108 172:148 173:137 174:96 175:139 176:126 177:76 178:121 179:105 180:75 181:124 182:104 183:75 184:124 185:102 186:64 187:116 188:92 189:74 190:127 191:100 192:-1 
8.303310400763765e-21 0:147 1:177 2:172 3:126 4:156 5:151 6:109 7:142 8:135 9:101 10:138 11:128 12:101 13:142 14:127 15:98 16:138 17:120 18:84 19:127 20:106 21:67 22:110 23:89 24:126 25:154 26:148 27:138 28:163 29:159 30:130 31:154 32:152 33:116 34:140 35:138 36:122 37:149 38:145 39:129 40:157 41:151 42:121 43:153 44:142 45:98 46:132 47:121 48:96 49:125 50:116 51:142 52:165 53:161 54:142 55:160 56:159 57:123 58:141 59:142 60:134 61:154 62:155 63:147 64:169 65:167 66:151 67:176 68:172 69:143 70:170 71:166 72:95 73:127 74:116 75:146 76:168 77:163 78:140 79:157 80:154 81:131 82:146 83:148 84:135 85:150 86:152 87:99 88:117 89:118 90:35 91:55 92:56 93:91 94:113 95:111 96:90 97:122 98:111 99:109 100:133 101:125 102:121 103:141 104:136 105:140 106:159 107:156 108:139 109:157 110:156 111:89 112:108 113:111 114:1 115:22 116:24 117:80 118:101 119:102 120:86 121:120 122:110 123:82 124:109 125:100 126:100 127:127 128:118 129:116 130:143 131:134 132:114 133:141 134:137 135:75 136:100 137:104 138:28 139:53 140:57 141:83 142:108 143:110 144:82 145:118 146:106 147:77 148:108 149:99 150:86 151:115 152:106 153:85 154:119 155:109 156:102 157:136 158:129 159:97 160:125 161:125 162:86 163:114 164:115 165:90 166:119 167:116 168:71 169:107 170:93 171:83 172:115 173:104 174:67 175:101 176:91 177:45 178:82 179:72 180:112 181:149 182:139 183:139 184:172 185:165 186:112 187:143 188:134 189:89 190:123 191:113 192:-1 
1.3436696370723e-20 0:93 1:142 2:114 3:93 4:143 5:113 6:94 7:142 8:113 9:94 10:142 11:113 12:97 13:145 14:116 15:100 16:148 17:120 18:101 19:149 20:121 21:100 22:148 23:120 24:94 25:142 26:113 27:94 28:142 29:113 30:97 31:143 32:114 33:96 34:142 35:113 36:97 37:143 38:114 39:98 40:144 41:115 42:98 43:144 44:115 45:95 46:143 47:115 48:94 49:142 50:113 51:96 52:142 53:113 54:97 55:143 56:114 57:96 58:142 59:113 60:97 61:143 62:114 63:98 64:144 65:115 66:99 67:145 68:116 69:97 70:145 71:117 72:94 73:143 74:111 75:96 76:143 77:111 78:96 79:143 80:111 81:97 82:144 83:112 84:97 85:144 86:112 87:95 88:144 89:112 90:95 91:144 92:112 93:95 94:143 95:114 96:95 97:144 98:112 99:96 100:145 101:113 102:95 103:144 104:112 105:98 106:145 107:113 108:95 109:144 110:112 111:94 112:143 113:111 114:93 115:143 116:111 117:93 118:141 119:112 120:95 121:145 122:113 123:95 124:145 125:113 126:94 127:144 128:112 129:95 130:144 131:112 132:93 133:143 134:111 135:92 136:142 137:110 138:89 139:142 140:109 141:91 142:141 143:109 144:92 145:145 146:112 147:92 148:145 149:112 150:91 151:144 152:111 153:89 154:142 155:109 156:88 157:141 158:108 159:87 160:140 161:107 162:85 163:140 164:107 165:88 166:141 167:108 168:88 169:143 170:110 171:88 172:142 173:112 174:87 175:141 176:111 177:84 178:138 179:108 180:84 181:138 182:108 183:84 184:138 185:108 186:82 187:139 188:108 189:86 190:140 191:110 192:-1 
2.339637991160038e-20 0:106 1:144 2:126 3:87 4:121 5:104 6:54 7:83 8:68 9:37 10:63 11:50 12:67 13:92 14:82 15:114 16:138 17:130 18:122 19:148 20:142 21:123 22:154 23:145 24:101 25:139 26:121 27:66 28:100 29:83 30:23 31:55 32:38 33:41 34:70 35:55 36:94 37:120 38:107 39:133 40:159 41:146 42:128 43:155 44:145 45:127 46:157 47:144 48:96 49:133 50:117 51:47 52:83 53:67 54:31 55:62 56:47 57:80 58:111 59:96 60:98 61:128 62:115 63:113 64:143 65:130 66:97 67:129 68:118 69:87 70:122 71:108 72:81 73:119 74:107 75:66 76:100 77:89 78:65 79:100 80:86 81:89 82:124 83:110 84:91 85:125 86:114 87:94 88:130 89:118 90:88 91:125 92:115 93:77 94:117 95:105 96:72 97:108 98:96 99:80 100:116 101:102 102:85 103:120 104:106 105:88 106:123 107:109 108:91 109:127 110:115 111:84 112:121 113:111 114:76 115:116 116:105 117:72 118:114 119:103 120:77 121:115 122:97 123:81 124:117 125:100 126:82 127:118 128:101 129:91 130:127 131:111 132:90 133:125 134:111 135:90 136:126 137:114 138:75 139:110 140:100 141:68 142:105 143:95 144:64 145:106 146:83 147:76 148:118 149:95 150:97 151:138 152:117 153:99 154:137 155:119 156:96 157:132 158:118 159:98 160:132 161:121 162:88 163:122 164:112 165:82 166:116 167:109 168:47 169:95 170:69 171:65 172:113 173:87 174:101 175:149 176:125 177:89 178:134 179:115 180:90 181:129 182:114 183:86 184:121 185:111 186:81 187:113 188:108 189:85 190:114 191:111 192:-1 
-2.581195546885996e-22 0:114 1:163 2:161 3:124 4:164 5:162 6:118 7:151 8:147 9:142 10:169 11:165 12:177 13:200 14:195 15:185 16:208 17:200 18:171 19:195 20:187 21:121 22:152 23:145 24:102 25:155 26:152 27:101 28:146 29:143 30:97 31:137 32:132 33:122 34:156 35:150 36:148 37:181 38:174 39:153 40:184 41:177 42:143 43:176 44:169 45:121 46:159 47:153 48:79 49:129 50:127 51:85 52:130 53:127 54:97 55:137 56:135 57:95 58:132 59:128 60:97 61:133 62:127 63:114 64:150 65:144 66:119 67:157 68:151 69:108 70:152 71:146 72:60 73:107 74:104 75:90 76:133 77:130 78:132 79:171 80:169 81:122 82:159 83:157 84:103 85:138 86:134 87:117 88:152 89:148 90:104 91:144 92:139 93:81 94:128 95:125 96:81 97:121 98:119 99:110 100:147 101:145 102:146 103:178 104:177 105:146 106:177 107:176 108:124 109:155 110:154 111:122 112:153 113:154 114:108 115:144 116:144 117:81 118:127 119:128 120:134 121:166 122:165 123:151 124:179 125:180 126:155 127:178 128:180 129:154 130:175 131:177 132:137 133:158 134:160 135:125 136:147 137:152 138:120 139:149 140:153 141:87 142:127 143:132 144:142 145:173 146:172 147:155 148:178 149:180 150:150 151:169 152:172 153:149 154:168 155:173 156:151 157:170 158:175 159:139 160:159 161:164 162:124 163:153 164:158 165:93 166:132 167:140 168:128 169:158 170:159 171:135 172:160 173:164 174:137 175:159 176:164 177:138 178:160 179:166 180:146 181:170 182:176 183:137 184:166 185:171 186:123 187:157 188:163 189:95 190:134 191:142 192:-1 
-4.735452115887076e-21 0:92 1:141 2:139 3:120 4:163 5:160 6:181 7:218 8:214 9:176 10:208 11:203 12:149 13:176 14:172 15:128 16:153 17:149 18:126 19:151 20:147 21:135 22:165 23:160 24:106 25:149 26:146 27:150 28:189 29:187 30:183 31:214 32:211 33:155 34:182 35:178 36:130 37:155 38:151 39:143 40:170 41:167 42:135 43:164 44:161 45:112 46:145 47:141 48:134 49:166 50:165 51:180 52:208 53:208 54:186 55:210 56:208 57:148 58:170 59:168 60:124 61:151 62:148 63:140 64:172 65:171 66:133 67:171 68:171 69:96 70:140 71:139 72:187 73:208 74:206 75:197 76:215 77:214 78:202 79:219 80:216 81:172 82:191 83:188 84:138 85:162 86:160 87:109 88:141 89:140 90:92 91:134 92:133 93:89 94:139 95:139 96:212 97:220 98:219 99:209 100:216 101:213 102:191 103:201 104:195 105:172 106:186 107:182 108:145 109:166 110:163 111:111 112:142 113:139 114:85 115:127 116:126 117:79 118:131 119:131 120:229 121:231 122:231 123:215 124:219 125:214 126:179 127:186 128:179 129:165 130:178 131:170 132:143 133:163 134:158 135:129 136:160 137:157 138:103 139:146 140:143 141:80 142:135 143:132 144:215 145:218 146:216 147:203 148:209 149:204 150:189 151:197 152:190 153:173 154:188 155:180 156:141 157:164 158:159 159:118 160:154 161:148 162:92 163:139 164:136 165:79 166:138 167:134 168:207 169:216 170:213 171:195 172:207 173:201 174:182 175:199 176:190 177:145 178:169 179:159 180:108 181:139 182:132 183:92 184:133 185:126 186:83 187:134 188:130 189:85 190:146 191:142 192:-1 
-3.922581495112356e-21 0:105 1:162 2:159 3:132 4:182 5:178 6:153 7:194 8:187 9:160 10:196 11:190 12:145 13:181 14:175 15:134 16:175 17:168 18:133 19:177 20:171 21:120 22:167 23:164 24:82 25:141 26:137 27:125 28:176 29:172 30:152 31:193 32:188 33:165 34:203 35:197 36:153 37:191 38:185 39:139 40:180 41:173 42:132 43:173 44:168 45:118 46:164 47:158 48:106 49:159 50:156 51:145 52:192 53:189 54:154 55:200 56:194 57:159 58:203 59:196 60:141 61:187 62:181 63:125 64:173 65:167 66:115 67:167 68:160 69:100 70:157 71:149 72:132 73:182 74:180 75:160 76:207 77:204 78:157 79:205 80:199 81:142 82:191 83:183 84:111 85:163 86:156 87:98 88:155 89:147 90:97 91:157 92:149 93:86 94:151 95:142 96:130 97:183 98:180 99:147 100:197 101:193 102:130 103:181 104:174 105:108 106:160 107:153 108:76 109:133 110:125 111:72 112:135 113:126 114:81 115:149 116:142 117:80 118:153 119:145 120:130 121:180 122:178 123:142 124:189 125:186 126:135 127:178 128:175 129:117 130:163 131:157 132:87 133:139 134:132 135:76 136:136 137:128 138:79 139:147 140:140 141:76 142:151 143:143 144:143 145:192 146:190 147:168 148:207 149:205 150:168 151:196 152:196 153:150 154:179 155:176 156:112 157:152 158:147 159:95 160:146 161:139 162:92 163:152 164:146 165:85 166:153 167:146 168:173 169:213 170:212 171:200 172:231 173:230 174:193 175:213 176:214 177:165 178:186 179:184 180:119 181:152 182:148 183:98 184:144 185:138 186:90 187:148 188:143 189:83 190:150 191:143 192:-1 
-1.600667534306047e-20 0:110 1:161 2:157 3:115 4:165 5:161 6:110 7:162 8:155 9:97 10:156 11:148 12:79 13:146 14:137 15:64 16:140 17:129 18:60 19:141 20:132 21:61 22:146 23:138 24:113 25:167 26:162 27:124 28:175 29:171 30:120 31:172 32:165 33:115 34:169 35:162 36:98 37:161 38:152 39:81 40:150 41:140 42:69 43:144 44:136 45:64 46:145 47:136 48:105 49:165 50:159 51:112 52:166 53:161 54:120 55:168 56:162 57:139 58:185 59:179 60:122 61:173 62:166 63:114 64:168 65:161 66:96 67:156 68:150 69:86 70:153 71:146 72:85 73:149 74:143 75:87 76:147 77:141 78:104 79:156 80:149 81:125 82:173 83:167 84:135 85:181 86:175 87:140 88:188 89:182 90:129 91:180 92:173 93:112 94:168 95:163 96:76 97:146 98:140 99:76 100:143 101:136 102:82 103:149 104:140 105:101 106:161 107:153 108:128 109:183 110:174 111:144 112:193 113:185 114:138 115:185 116:177 117:116 118:167 119:160 120:73 121:147 122:141 123:74 124:147 125:139 126:78 127:151 128:141 129:92 130:159 131:150 132:121 133:178 134:169 135:137 136:186 137:178 138:139 139:182 140:173 141:122 142:164 143:157 144:70 145:149 146:140 147:73 148:150 149:142 150:76 151:149 152:139 153:93 154:158 155:149 156:118 157:173 158:164 159:142 160:189 161:180 162:159 163:199 164:188 165:155 166:192 167:182 168:69 169:150 170:141 171:73 172:152 173:143 174:78 175:151 176:141 177:90 178:156 179:145 180:102 181:160 182:149 183:125 184:175 185:163 186:151 187:194 188:181 189:161 190:199 191:187 192:-1 
-3.457922402597827e-22 0:177 1:207 2:196 3:183 4:206 5:198 6:181 7:203 8:198 9:185 10:209 11:207 12:156 13:190 14:189 15:122 16:169 17:167 18:90 19:148 20:147 21:77 22:146 23:143 24:140 25:182 26:171 27:160 28:193 29:186 30:160 31:187 32:183 33:155 34:186 35:183 36:131 37:171 38:169 39:105 40:155 41:153 42:79 43:143 44:138 45:73 46:145 47:139 48:124 49:173 50:165 51:153 52:194 53:187 54:152 55:184 56:179 57:143 58:174 59:171 60:132 61:169 62:165 63:118 64:165 65:162 66:99 67:157 68:152 69:92 70:156 71:150 72:116 73:170 74:163 75:148 76:189 77:184 78:156 79:187 80:184 81:159 82:186 83:183 84:156 85:185 86:182 87:145 88:178 89:174 90:127 91:168 92:163 93:111 94:159 95:153 96:106 97:163 98:155 99:136 100:182 101:176 102:164 103:197 104:193 105:184 106:211 107:208 108:186 109:211 110:207 111:169 112:194 113:190 114:153 115:183 116:178 117:136 118:172 119:166 120:90 121:149 122:141 123:125 124:173 125:167 126:156 127:194 128:188 129:175 130:207 131:202 132:183 133:209 134:203 135:178 136:202 137:194 138:161 139:185 140:177 141:156 142:185 143:176 144:92 145:152 146:144 147:107 148:159 149:152 150:118 151:162 152:155 153:126 154:164 155:158 156:137 157:170 158:163 159:145 160:174 161:165 162:147 163:174 164:165 165:154 166:183 167:174 168:85 169:152 170:143 171:90 172:150 173:142 174:96 175:149 176:140 177:100 178:149 179:141 180:118 181:161 182:152 183:124 184:166 185:155 186:129 187:169 188:158 189:140 190:177 191:167 192:-1 
-6.462610191583462e-21 0:122 1:166 2:165 3:90 4:144 5:144 6:84 7:144 8:143 9:79 10:148 11:145 12:64 13:141 14:137 15:52 16:136 17:131 18:53 19:142 20:133 21:52 22:141 23:132 24:153 25:190 26:186 27:123 28:165 29:164 30:110 31:159 32:157 33:98 34:155 35:152 36:84 37:151 38:146 39:71 40:145 41:139 42:67 43:145 44:138 45:67 46:147 47:140 48:166 49:200 50:194 51:137 52:172 53:168 54:122 55:162 56:160 57:114 58:161 59:158 60:111 61:165 62:160 63:96 64:157 65:153 66:83 67:149 68:144 69:82 70:152 71:146 72:151 73:186 74:176 75:136 76:170 77:163 78:130 79:166 80:160 81:130 82:168 83:162 84:135 85:176 86:171 87:124 88:169 89:166 90:106 91:156 92:154 93:96 94:153 95:150 96:149 97:185 98:171 99:157 100:189 101:178 102:164 103:193 104:184 105:166 106:194 107:188 108:174 109:201 110:197 111:168 112:197 113:194 114:150 115:184 116:183 117:128 118:170 119:169 120:151 121:190 122:174 123:179 124:208 125:193 126:193 127:217 128:205 129:203 130:220 131:211 132:215 133:226 134:223 135:212 136:225 137:223 138:202 139:217 140:219 141:175 142:199 143:199 144:122 145:172 146:154 147:156 148:192 149:176 150:177 151:203 152:189 153:194 154:214 155:202 156:214 157:225 158:217 159:219 160:226 161:221 162:216 163:227 164:224 165:193 166:210 167:207 168:91 169:155 170:136 171:117 172:169 173:151 174:138 175:182 176:165 177:160 178:194 179:177 180:179 181:204 182:190 183:201 184:219 185:206 186:212 187:229 188:218 189:201 190:221 191:209 192:-1 
-1.160746121806033e-21 0:162 1:196 2:195 3:146 4:181 5:184 6:126 7:167 8:170 9:116 10:163 11:167 12:101 13:153 14:159 15:87 16:145 17:150 18:81 19:145 20:149 21:76 22:148 23:148 24:143 25:182 26:180 27:141 28:177 29:177 30:138 31:176 32:178 33:140 34:178 35:183 36:129 37:174 38:178 39:114 40:164 41:170 42:99 43:157 44:162 45:78 46:148 47:148 48:137 49:174 50:170 51:143 52:177 53:176 54:147 55:181 56:181 57:149 58:184 59:188 60:150 61:188 62:193 63:134 64:180 65:187 66:110 67:165 68:170 69:77 70:142 71:143 72:145 73:176 74:173 75:149 76:177 77:177 78:144 79:174 80:175 81:144 82:174 83:179 84:151 85:187 86:193 87:143 88:187 89:194 90:121 91:173 92:179 93:87 94:148 95:150 96:192 97:215 98:211 99:160 100:181 101:179 102:128 103:152 104:152 105:126 106:153 107:157 108:143 109:175 110:180 111:148 112:188 113:193 114:139 115:187 116:191 117:114 118:169 119:172 120:222 121:237 122:233 123:189 124:203 125:202 126:153 127:168 128:170 129:134 130:153 131:156 132:157 133:184 134:188 135:158 136:190 137:195 138:148 139:186 140:190 141:138 142:183 143:186 144:224 145:239 146:235 147:223 148:236 149:234 150:210 151:222 152:222 153:190 154:205 155:207 156:183 157:204 158:206 159:176 160:203 161:207 162:166 163:197 164:200 165:149 166:187 167:189 168:190 169:212 170:207 171:218 172:235 173:232 174:214 175:228 176:227 177:198 178:212 179:211 180:186 181:204 182:205 183:186 184:207 185:208 186:177 187:203 188:203 189:163 190:191 191:191 192:-1 
-1.930884062666949e-20 0:109 1:184 2:176 3:110 4:185 5:177 6:114 7:189 8:181 9:115 10:190 11:182 12:113 13:188 14:180 15:109 16:186 17:178 18:104 19:185 20:176 21:103 22:189 23:179 24:115 25:192 26:185 27:114 28:191 29:184 30:113 31:190 32:183 33:108 34:185 35:178 36:109 37:186 38:179 39:104 40:182 41:175 42:104 43:182 44:175 45:105 46:183 47:176 48:109 49:187 50:180 51:107 52:186 53:177 54:105 55:183 56:176 57:101 58:180 59:171 60:104 61:182 62:175 63:103 64:180 65:172 66:108 67:185 68:178 69:109 70:184 71:176 72:106 73:185 74:176 75:106 76:185 77:174 78:105 79:182 80:174 81:102 82:180 83:169 84:107 85:184 86:176 87:110 88:186 89:175 90:113 91:186 92:178 93:108 94:181 95:171 96:106 97:184 98:173 99:107 100:183 101:171 102:103 103:179 104:167 105:103 106:177 107:165 108:105 109:179 110:167 111:109 112:181 113:169 114:110 115:182 116:170 117:105 118:177 119:165 120:106 121:178 122:165 123:104 124:174 125:161 126:102 127:172 128:159 129:103 130:172 131:159 132:99 133:168 134:155 135:95 136:164 137:151 138:93 139:162 140:149 141:91 142:161 143:148 144:87 145:156 146:141 147:92 148:160 149:143 150:102 151:167 152:152 153:107 154:172 155:156 156:99 157:162 158:146 159:89 160:152 161:136 162:89 163:154 164:138 165:88 166:156 167:139 168:73 169:141 170:124 171:84 172:150 173:131 174:98 175:161 176:145 177:108 178:170 179:152 180:100 181:160 182:142 183:90 184:150 185:132 186:92 187:153 188:133 189:90 190:153 191:133 192:-1 
-2.165555264937045e-19 0:76 1:141 2:125 3:80 4:142 5:124 6:87 7:146 8:126 9:98 10:151 11:131 12:116 13:160 14:143 15:123 16:162 17:146 18:130 19:165 20:151 21:128 22:163 23:149 24:75 25:144 26:124 27:80 28:145 29:124 30:87 31:146 32:125 33:95 34:149 35:126 36:108 37:155 38:133 39:117 40:160 41:139 42:124 43:162 44:144 45:131 46:169 47:151 48:76 49:142 50:123 51:79 52:144 53:123 54:88 55:148 56:124 57:90 58:147 59:122 60:96 61:148 62:125 63:105 64:152 65:130 66:113 67:156 68:135 69:126 70:166 71:148 72:77 73:142 74:121 75:77 76:142 77:120 78:84 79:143 80:122 81:86 82:144 83:120 84:90 85:146 86:125 87:98 88:149 89:129 90:105 91:154 92:134 93:120 94:165 95:148 96:75 97:140 98:118 99:75 100:140 101:118 102:77 103:141 104:119 105:81 106:143 107:121 108:86 109:145 110:125 111:91 112:147 113:128 114:92 115:147 116:128 117:103 118:155 119:137 120:71 121:139 122:114 123:71 124:139 125:116 126:75 127:140 128:119 129:76 130:141 131:120 132:75 133:139 134:120 135:73 136:135 137:117 138:67 139:129 140:111 141:79 142:137 143:119 144:68 145:139 146:113 147:67 148:137 149:114 150:68 151:137 152:116 153:68 154:137 155:117 156:67 157:136 158:116 159:62 160:131 161:111 162:56 163:122 164:103 165:66 166:130 167:111 168:67 169:139 170:116 171:67 172:139 173:116 174:65 175:138 176:116 177:66 178:138 179:118 180:67 181:139 182:119 183:65 184:137 185:117 186:60 187:131 188:111 189:68 190:137 191:117 192:-1 
-1.649840211826229e-19 0:120 1:156 2:140 3:120 4:156 5:140 6:111 7:148 8:132 9:96 10:135 11:119 12:91 13:135 14:118 15:97 16:145 17:127 18:96 19:146 20:128 21:88 22:140 23:122 24:117 25:154 26:138 27:113 28:149 29:133 30:110 31:146 32:130 33:108 34:145 35:129 36:111 37:148 38:132 39:113 40:152 41:136 42:112 43:151 44:135 45:106 46:148 47:131 48:107 49:146 50:131 51:109 52:146 53:130 54:110 55:146 56:130 57:111 58:147 59:131 60:116 61:152 62:136 63:121 64:157 65:141 66:121 67:157 68:141 69:118 70:154 71:138 72:103 73:144 74:129 75:104 76:143 77:127 78:107 79:144 80:128 81:108 82:145 83:129 84:111 85:148 86:132 87:115 88:152 89:136 90:119 91:156 92:140 93:118 94:155 95:139 96:100 97:143 98:128 99:103 100:145 101:128 102:103 103:145 104:128 105:105 106:144 107:128 108:105 109:144 110:128 111:108 112:147 113:131 114:114 115:151 116:135 117:113 118:150 119:134 120:94 121:141 122:125 123:99 124:144 125:127 126:99 127:144 128:127 129:100 130:144 131:127 132:102 133:144 134:127 135:104 136:146 137:129 138:107 139:146 140:130 141:104 142:143 143:127 144:92 145:144 146:127 147:95 148:145 149:127 150:96 151:144 152:126 153:97 154:142 155:125 156:97 157:141 158:124 159:98 160:142 161:125 162:101 163:143 164:126 165:99 166:141 167:124 168:93 169:148 170:129 171:95 172:147 173:130 174:93 175:145 176:128 177:93 178:142 179:126 180:93 181:140 182:124 183:95 184:140 185:124 186:97 187:140 188:125 189:100 190:143 191:128 192:-1 
-1.24330672425283e-20 0:83 1:155 2:143 3:90 4:159 5:148 6:91 7:160 8:149 9:93 10:162 11:151 12:88 13:157 14:144 15:81 16:148 17:133 18:85 19:146 20:132 21:107 22:163 23:150 24:82 25:151 26:140 27:79 28:147 29:136 30:71 31:139 32:128 33:72 34:138 35:126 36:74 37:135 38:121 39:86 40:145 41:130 42:99 43:156 44:141 45:113 46:168 47:153 48:89 49:155 50:144 51:81 52:147 53:136 54:79 55:142 56:132 57:89 58:151 59:139 60:106 61:160 62:147 63:118 64:169 65:155 66:118 67:171 68:157 69:115 70:168 71:154 72:93 73:156 74:146 75:94 76:157 77:147 78:98 79:159 80:149 81:109 82:167 83:156 84:140 85:189 86:175 87:143 88:190 89:174 90:135 91:184 92:168 93:116 94:170 95:153 96:110 97:170 98:159 99:129 100:187 101:176 102:133 103:188 104:179 105:133 106:185 107:175 108:140 109:186 110:173 111:128 112:175 113:159 114:119 115:168 116:152 117:104 118:159 119:142 120:118 121:172 122:159 123:135 124:188 125:175 126:142 127:192 128:182 129:136 130:183 131:174 132:116 133:165 134:151 135:112 136:163 137:149 138:106 139:159 140:145 141:100 142:155 143:140 144:114 145:166 146:149 147:120 148:166 149:153 150:117 151:160 152:149 153:108 154:154 155:142 156:100 157:151 158:137 159:97 160:150 161:136 162:94 163:149 164:134 165:92 166:147 167:132 168:115 169:163 170:145 171:113 172:156 173:141 174:108 175:148 176:136 177:103 178:147 179:134 180:92 181:143 182:129 183:88 184:143 185:128 186:88 187:143 188:128 189:87 190:142 191:127 192:-1 
